<Qucs Dataset 0.0.19>
<indep Vin 1>
  +1.50000000000000000000e+00
</indep>
<indep time 201>
  +0.00000000000000000000e+00
  +1.00000000000000008180e-05
  +2.00000000000000016361e-05
  +3.00000000000000041482e-05
  +4.00000000000000032721e-05
  +5.00000000000000023961e-05
  +6.00000000000000082963e-05
  +7.00000000000000074203e-05
  +8.00000000000000065442e-05
  +9.00000000000000056682e-05
  +1.00000000000000004792e-04
  +1.10000000000000003916e-04
  +1.20000000000000016593e-04
  +1.30000000000000015717e-04
  +1.40000000000000014841e-04
  +1.50000000000000013965e-04
  +1.60000000000000013088e-04
  +1.70000000000000012212e-04
  +1.80000000000000011336e-04
  +1.90000000000000010460e-04
  +2.00000000000000009584e-04
  +2.10000000000000008708e-04
  +2.20000000000000007832e-04
  +2.30000000000000006956e-04
  +2.40000000000000033185e-04
  +2.50000000000000005204e-04
  +2.60000000000000031433e-04
  +2.70000000000000003452e-04
  +2.80000000000000029681e-04
  +2.90000000000000001700e-04
  +3.00000000000000027929e-04
  +3.09999999999999999948e-04
  +3.20000000000000026177e-04
  +3.30000000000000052406e-04
  +3.40000000000000024425e-04
  +3.50000000000000050654e-04
  +3.60000000000000022673e-04
  +3.70000000000000048902e-04
  +3.80000000000000020921e-04
  +3.90000000000000047150e-04
  +4.00000000000000019169e-04
  +4.10000000000000045398e-04
  +4.20000000000000017417e-04
  +4.30000000000000043646e-04
  +4.40000000000000015665e-04
  +4.50000000000000041894e-04
  +4.60000000000000013912e-04
  +4.70000000000000040142e-04
  +4.80000000000000066371e-04
  +4.90000000000000092600e-04
  +5.00000000000000010408e-04
  +5.10000000000000036637e-04
  +5.20000000000000062866e-04
  +5.30000000000000089095e-04
  +5.40000000000000006904e-04
  +5.50000000000000033133e-04
  +5.60000000000000059362e-04
  +5.70000000000000085591e-04
  +5.80000000000000003400e-04
  +5.90000000000000029629e-04
  +6.00000000000000055858e-04
  +6.10000000000000082087e-04
  +6.19999999999999999896e-04
  +6.30000000000000026125e-04
  +6.40000000000000052354e-04
  +6.50000000000000078583e-04
  +6.60000000000000104812e-04
  +6.70000000000000022621e-04
  +6.80000000000000048850e-04
  +6.90000000000000075079e-04
  +7.00000000000000101308e-04
  +7.10000000000000019117e-04
  +7.20000000000000045346e-04
  +7.30000000000000071575e-04
  +7.40000000000000097804e-04
  +7.50000000000000015613e-04
  +7.60000000000000041842e-04
  +7.70000000000000068071e-04
  +7.80000000000000094300e-04
  +7.90000000000000012108e-04
  +8.00000000000000038337e-04
  +8.10000000000000064566e-04
  +8.20000000000000090795e-04
  +8.30000000000000117024e-04
  +8.40000000000000034833e-04
  +8.50000000000000061062e-04
  +8.60000000000000087291e-04
  +8.70000000000000113520e-04
  +8.80000000000000031329e-04
  +8.90000000000000057558e-04
  +9.00000000000000083787e-04
  +9.10000000000000110016e-04
  +9.20000000000000027825e-04
  +9.30000000000000054054e-04
  +9.40000000000000080283e-04
  +9.50000000000000106512e-04
  +9.60000000000000132741e-04
  +9.70000000000000050550e-04
  +9.80000000000000185199e-04
  +9.89999999999999994588e-04
  +1.00000000000000002082e-03
  +1.01000000000000004705e-03
  +1.02000000000000007327e-03
  +1.03000000000000009950e-03
  +1.04000000000000012573e-03
  +1.05000000000000015196e-03
  +1.06000000000000017819e-03
  +1.06999999999999998758e-03
  +1.08000000000000001381e-03
  +1.09000000000000004004e-03
  +1.10000000000000006627e-03
  +1.11000000000000009250e-03
  +1.12000000000000011872e-03
  +1.13000000000000014495e-03
  +1.14000000000000017118e-03
  +1.15000000000000019741e-03
  +1.16000000000000000680e-03
  +1.17000000000000003303e-03
  +1.18000000000000005926e-03
  +1.19000000000000008549e-03
  +1.20000000000000011172e-03
  +1.21000000000000013795e-03
  +1.22000000000000016417e-03
  +1.23000000000000019040e-03
  +1.23999999999999999979e-03
  +1.25000000000000002602e-03
  +1.26000000000000005225e-03
  +1.27000000000000007848e-03
  +1.28000000000000010471e-03
  +1.29000000000000013094e-03
  +1.30000000000000015717e-03
  +1.31000000000000018339e-03
  +1.32000000000000020962e-03
  +1.33000000000000001901e-03
  +1.34000000000000004524e-03
  +1.35000000000000007147e-03
  +1.36000000000000009770e-03
  +1.37000000000000012393e-03
  +1.38000000000000015016e-03
  +1.39000000000000017639e-03
  +1.40000000000000020262e-03
  +1.41000000000000001200e-03
  +1.42000000000000003823e-03
  +1.43000000000000006446e-03
  +1.44000000000000009069e-03
  +1.45000000000000011692e-03
  +1.46000000000000014315e-03
  +1.47000000000000016938e-03
  +1.48000000000000019561e-03
  +1.49000000000000022184e-03
  +1.50000000000000003123e-03
  +1.51000000000000005745e-03
  +1.52000000000000008368e-03
  +1.53000000000000010991e-03
  +1.54000000000000013614e-03
  +1.55000000000000016237e-03
  +1.56000000000000018860e-03
  +1.57000000000000021483e-03
  +1.58000000000000002422e-03
  +1.59000000000000005045e-03
  +1.60000000000000007667e-03
  +1.61000000000000010290e-03
  +1.62000000000000012913e-03
  +1.63000000000000015536e-03
  +1.64000000000000018159e-03
  +1.65000000000000020782e-03
  +1.66000000000000023405e-03
  +1.67000000000000004344e-03
  +1.68000000000000006967e-03
  +1.69000000000000009590e-03
  +1.70000000000000012212e-03
  +1.71000000000000014835e-03
  +1.72000000000000017458e-03
  +1.73000000000000020081e-03
  +1.74000000000000022704e-03
  +1.75000000000000003643e-03
  +1.76000000000000006266e-03
  +1.77000000000000008889e-03
  +1.78000000000000011512e-03
  +1.79000000000000014135e-03
  +1.80000000000000016757e-03
  +1.81000000000000019380e-03
  +1.82000000000000022003e-03
  +1.83000000000000024626e-03
  +1.84000000000000005565e-03
  +1.85000000000000008188e-03
  +1.86000000000000010811e-03
  +1.87000000000000013434e-03
  +1.88000000000000016057e-03
  +1.89000000000000018680e-03
  +1.90000000000000021302e-03
  +1.91000000000000023925e-03
  +1.92000000000000026548e-03
  +1.93000000000000007487e-03
  +1.94000000000000010110e-03
  +1.95000000000000012733e-03
  +1.96000000000000037040e-03
  +1.96999999999999996295e-03
  +1.97999999999999998918e-03
  +1.99000000000000001540e-03
  +2.00000000000000004163e-03
</indep>
<dep Pr1.It time>
  +2.47453665316117602316e-03
  +2.51889928458933452793e-03
  +2.56346369132611070704e-03
  +2.60804666042285587454e-03
  +2.65246040418494651025e-03
  +2.69651348649104817545e-03
  +2.74001183343823215277e-03
  +2.78275981816161277829e-03
  +2.82456141079933569296e-03
  +2.86522138310466543965e-03
  +2.90454655615429192805e-03
  +2.94234707870271025229e-03
  +2.97843772300034493467e-03
  +3.01263918434206169616e-03
  +3.04477937025102477972e-03
  +3.07469466503872135288e-03
  +3.10223115551880312957e-03
  +3.12724580389026540414e-03
  +3.14960755424387823728e-03
  +3.16919835977708163124e-03
  +3.18591411862069896072e-03
  +3.19966550717274171231e-03
  +3.21037870098768961247e-03
  +3.21799597456684776525e-03
  +3.22247617281846369247e-03
  +3.22379504848468436892e-03
  +3.22194546144374165467e-03
  +3.21693743746682362522e-03
  +3.20879808571577964521e-03
  +3.19757137598417539789e-03
  +3.18331777838687900173e-03
  +3.16611376986578691925e-03
  +3.14605121347846707763e-03
  +3.12323661794850241866e-03
  +3.09779028635969334166e-03
  +3.06984536415049608093e-03
  +3.03954679769186889710e-03
  +3.00705021569576793142e-03
  +2.97252074648814059582e-03
  +2.93613178478049690820e-03
  +2.89806372197815367842e-03
  +2.85850265426805310795e-03
  +2.81763908273149508640e-03
  +2.77566661952944595745e-03
  +2.73278071381399118023e-03
  +2.68917741043720945338e-03
  +2.64505215376748242101e-03
  +2.60059864799691781503e-03
  +2.55600778424703873465e-03
  +2.51146664357116463501e-03
  +2.46715758363046924403e-03
  +2.42325741540808667698e-03
  +2.37993667484430850359e-03
  +2.33735899274947322296e-03
  +2.29568056480409154671e-03
  +2.25504972191197926995e-03
  +2.21560659965625711409e-03
  +2.17748290414363551010e-03
  +2.14080177013175167525e-03
  +2.10567770603978547325e-03
  +2.07221661926253056599e-03
  +2.04051591416191816300e-03
  +2.01066465421223701526e-03
  +1.98274377903964868150e-03
  +1.95682636653318666603e-03
  +1.93297792982156870119e-03
  +1.91125673871192047586e-03
  +1.89171415517500095607e-03
  +1.87439497263538210406e-03
  +1.85933774917997085042e-03
  +1.84657512532703503051e-03
  +1.83613411769023788037e-03
  +1.82803638071599204931e-03
  +1.82229842965183730201e-03
  +1.81893181900164859453e-03
  +1.81794327192123295923e-03
  +1.81933475728362440554e-03
  +1.82310351247620986911e-03
  +1.82924201135751434213e-03
  +1.83773787817732067035e-03
  +1.84857374962576819985e-03
  +1.86172708850160044912e-03
  +1.87716995375410665436e-03
  +1.89486873283555511648e-03
  +1.91478384338024474470e-03
  +1.93686941218432066326e-03
  +1.96107294027932522323e-03
  +1.98733496355840526248e-03
  +2.01558871891417993802e-03
  +2.04575982617190201690e-03
  +2.07776599624460598867e-03
  +2.11151677589391717146e-03
  +2.14691333925064870014e-03
  +2.18384833583556980940e-03
  +2.22220580422766329776e-03
  +2.26186115976368231142e-03
  +2.30268126372861056325e-03
  +2.34452458042699700413e-03
  +2.38724142732463185876e-03
  +2.43067432213741599009e-03
  +2.47465842934010754259e-03
  +2.51902210709258056465e-03
  +2.56358755405899614924e-03
  +2.60817155404938433652e-03
  +2.65258631486771714880e-03
  +2.69664039622991361100e-03
  +2.74013972014407365674e-03
  +2.78288865574629219052e-03
  +2.82469116928133314251e-03
  +2.86535202873000128046e-03
  +2.90467805153227622353e-03
  +2.94247938295588836941e-03
  +2.97857079192819559216e-03
  +3.01277297059761046266e-03
  +3.04491382352980099676e-03
  +3.07482973227926311213e-03
  +3.10236678111384988135e-03
  +3.12738192990793216486e-03
  +3.14974412065779614880e-03
  +3.16933530470466353138e-03
  +3.18605137856858757622e-03
  +3.19980301728841872236e-03
  +3.21051639531631230126e-03
  +3.21813378631223816900e-03
  +3.22261403460726665246e-03
  +3.22393289263261462532e-03
  +3.22208322022285876401e-03
  +3.21707504337285414911e-03
  +3.20893547173432130970e-03
  +3.19770847585484213615e-03
  +3.18345452686425280445e-03
  +3.16625010297622933378e-03
  +3.14618706877170181690e-03
  +3.12337193474304620697e-03
  +3.09792500598116051641e-03
  +3.06997943016178468853e-03
  +3.03968015611441773338e-03
  +3.00718281522090787744e-03
  +2.97265253867782424171e-03
  +2.93626272425651785314e-03
  +2.89819376659922493464e-03
  +2.85863176529396138120e-03
  +2.81776722497374980045e-03
  +2.77579376148775862354e-03
  +2.73290682779819436507e-03
  +2.68930247267400732505e-03
  +2.64517614449169590277e-03
  +2.60072155152685398349e-03
  +2.55612958904368305427e-03
  +2.51158734228101778591e-03
  +2.46727717311182601426e-03
  +2.42337589674068839760e-03
  +2.38005405332231655124e-03
  +2.33747527785783471357e-03
  +2.29579577017839219638e-03
  +2.25516386528192306835e-03
  +2.21571970277307682060e-03
  +2.17759499269161264923e-03
  +2.14091287362436167793e-03
  +2.10578785770073511133e-03
  +2.07232585589227401648e-03
  +2.04062427599012311333e-03
  +2.01077218473687995351e-03
  +1.98285052485323029861e-03
  +1.95693237713692128749e-03
  +1.93308325742821279780e-03
  +1.91136143803801740980e-03
  +1.89181828322339587976e-03
  +1.87449858846884900333e-03
  +1.85944091368688891631e-03
  +1.84667790097997933617e-03
  +1.83623656829850546469e-03
  +1.82813857117303723773e-03
  +1.82240042567855149713e-03
  +1.81903368688658803771e-03
  +1.81804507825874964513e-03
  +1.81943656871097979820e-03
  +1.82320539541070466422e-03
  +1.82934403173462458575e-03
  +1.83784010119094481928e-03
  +1.84867623947156112241e-03
  +1.86182990812441026378e-03
  +1.87727316460052141324e-03
  +1.89497239461251755152e-03
  +1.91488801382070500390e-03
  +1.93697414682082779194e-03
  +1.96117829222643104067e-03
  +1.98744098330476490905e-03
  +2.01569545412517764013e-03
  +2.04586732150351590862e-03
  +2.07787429316925575246e-03
  +2.11162591253903804411e-03
  +2.14702335025052787332e-03
  +2.18395925219707015899e-03
  +2.22231765321038478300e-03
  +2.26197396477492793793e-03
  +2.30279504423364219864e-03
  +2.34463935187492842488e-03
  +2.38735720109018540944e-03
  +2.43079110547882474777e-03
  +2.47477622537326446758e-03
</dep>
<dep V1.It time>
  -2.82418700281152589004e-03
  -2.86792183347132391413e-03
  -2.91186112586426081722e-03
  -2.95582413402736485231e-03
  -2.99962551689522249204e-03
  -3.04307625498580983786e-03
  -3.08598465150427712575e-03
  -3.12815740778122665378e-03
  -3.16940076404937645313e-03
  -3.20952169509662208965e-03
  -3.24832914927997238458e-03
  -3.28563531848452463485e-03
  -3.32125692587828666089e-03
  -3.35501651776130751376e-03
  -3.38674374544446418756e-03
  -3.41627662292755002876e-03
  -3.44346274618148378774e-03
  -3.46816046007553417316e-03
  -3.49023995942698058575e-03
  -3.50958431127996539969e-03
  -3.52609038633636085944e-03
  -3.53966968845128172189e-03
  -3.55024907225676969111e-03
  -3.55777134027214112996e-03
  -3.56219571228025928475e-03
  -3.56349816127503153662e-03
  -3.56167161189436263027e-03
  -3.55672599892144832706e-03
  -3.54868818514156823818e-03
  -3.53760173955547894964e-03
  -3.52352657865074268828e-03
  -3.50653847509237040839e-03
  -3.48672843979092126482e-03
  -3.46420198481588430955e-03
  -3.43907827602321592916e-03
  -3.41148918553789946839e-03
  -3.38157825535697698430e-03
  -3.34949958430046665706e-03
  -3.31541665132214320375e-03
  -3.27950108879042356858e-03
  -3.24193141975177845371e-03
  -3.20289177339210667794e-03
  -3.16257059291232380319e-03
  -3.12115934983518347745e-03
  -3.07885127836485077146e-03
  -3.03584014283716542570e-03
  -2.99231905053610634446e-03
  -2.94847932122461933030e-03
  -2.90450942366055802138e-03
  -2.86059398815902881166e-03
  -2.81691290294039300285e-03
  -2.77364050059012616847e-03
  -2.73094483947511996666e-03
  -2.68898708343442071830e-03
  -2.64792098151536443168e-03
  -2.60789244798245289231e-03
  -2.56903924131072309775e-03
  -2.53149073941139448121e-03
  -2.49536780694752796661e-03
  -2.46078274930366805787e-03
  -2.42783934659428646957e-03
  -2.39663296005070743794e-03
  -2.36725070222963251271e-03
  -2.33977166175203732043e-03
  -2.31426717271923784378e-03
  -2.29080111857164151618e-03
  -2.26943025995910352063e-03
  -2.25020457618210637310e-03
  -2.23316760993870705790e-03
  -2.21835680546910839900e-03
  -2.20580383072052372412e-03
  -2.19553487484950996325e-03
  -2.18757091322491388496e-03
  -2.18192793307626052568e-03
  -2.17861711403280478017e-03
  -2.17764495899858915445e-03
  -2.17901337208697152073e-03
  -2.18271968167332765937e-03
  -2.18875660799274689497e-03
  -2.19711217608781943580e-03
  -2.20776957627598531542e-03
  -2.22070697563287030793e-03
  -2.23589728525476830190e-03
  -2.25330788924803758488e-03
  -2.27290034247481804314e-03
  -2.29463004504472291994e-03
  -2.31844590236320730048e-03
  -2.34428998021535186375e-03
  -2.37209716486594607635e-03
  -2.40179483848332970750e-03
  -2.43330258033938075235e-03
  -2.46653190419676400860e-03
  -2.50138604206667346935e-03
  -2.53775978410808716185e-03
  -2.57553938384790393618e-03
  -2.61460253713911242729e-03
  -2.65481844235109518473e-03
  -2.69604794821756005296e-03
  -2.73814379456796151355e-03
  -2.78095094985641002119e-03
  -2.82430704799847354450e-03
  -2.86804292555167946940e-03
  -2.91198325875358619841e-03
  -2.95594729838551117940e-03
  -2.99974969888459723488e-03
  -3.04320143660607479730e-03
  -3.08611081066612275361e-03
  -3.12828451839632353665e-03
  -3.16952879613601346681e-03
  -3.20965061490062920219e-03
  -3.24845891941046797241e-03
  -3.28576589806386411274e-03
  -3.32138827070575749431e-03
  -3.35514858048974488544e-03
  -3.38687647576920661946e-03
  -3.41640996778694479297e-03
  -3.44359664996808081602e-03
  -3.46829486485725722866e-03
  -3.49037480517727085813e-03
  -3.50971953611604490716e-03
  -3.52622592676468237655e-03
  -3.53980547961913697558e-03
  -3.55038504820912557969e-03
  -3.55790743421262973742e-03
  -3.56233185683533550014e-03
  -3.56363428876022014791e-03
  -3.56180765458153367545e-03
  -3.55686188930613798181e-03
  -3.54882385620918557739e-03
  -3.53773712504544708690e-03
  -3.52366161331745452942e-03
  -3.50667309496199754854e-03
  -3.48686258241299833205e-03
  -3.46433558950873807594e-03
  -3.43921128411227164726e-03
  -3.41162154058586609973e-03
  -3.38170990338510380618e-03
  -3.34963047399989589936e-03
  -3.31554673425463793807e-03
  -3.27963031957758874291e-03
  -3.24205975625213756175e-03
  -3.20301917686525820794e-03
  -3.16269702816958809405e-03
  -3.12128478537608252188e-03
  -3.07897568649902891869e-03
  -3.03596349979113862630e-03
  -2.99244133654450643681e-03
  -2.94860052060556473985e-03
  -2.90462952487484599509e-03
  -2.86071298385297181216e-03
  -2.81703078997209716700e-03
  -2.77375728003914460984e-03
  -2.73106051663542584440e-03
  -2.68910166779077293084e-03
  -2.64803448670316091129e-03
  -2.60800489173120941117e-03
  -2.56915064537148463142e-03
  -2.53160112946825477040e-03
  -2.49547721251377422474e-03
  -2.46089120360281927297e-03
  -2.42794688642660903485e-03
  -2.39673962564568125699e-03
  -2.36735653708504715717e-03
  -2.33987671246020483007e-03
  -2.31437148878118606130e-03
  -2.29090475219993934541e-03
  -2.26953326587010697363e-03
  -2.25030701137847281845e-03
  -2.23326953348302378183e-03
  -2.21845827824956702556e-03
  -2.20590491520951219317e-03
  -2.19563563485613904777e-03
  -2.18767141364245056023e-03
  -2.18202823962540884417e-03
  -2.17871729300193450046e-03
  -2.17774507698186578844e-03
  -2.17911349572146983283e-03
  -2.18281987737616121198e-03
  -2.18885694169920546823e-03
  -2.19721271299161457005e-03
  -2.20787038057258539619e-03
  -2.22080811026693740462e-03
  -2.23599881167270376700e-03
  -2.25340986715659875178e-03
  -2.27300282960676749283e-03
  -2.29473309693242408236e-03
  -2.31854957212102637948e-03
  -2.34439431833175730008e-03
  -2.37220221900613604735e-03
  -2.40190065330309673181e-03
  -2.43340919731095889703e-03
  -2.46663936144740246134e-03
  -2.50149437423047380641e-03
  -2.53786902219172664369e-03
  -2.57564955511079647296e-03
  -2.61471366498837584288e-03
  -2.65493054625180573136e-03
  -2.69616104361864589167e-03
  -2.73825789284395980719e-03
  -2.78106605826536909878e-03
  -2.82442316965610031726e-03
</dep>
<dep V3.It time>
  +0.00000000000000000000e+00
  -2.08780977141952622922e-06
  -4.16667836943794911913e-06
  -6.22840882738333523398e-06
  -8.26486472110461924828e-06
  -1.02680093083933206798e-05
  -1.22299373203833640003e-05
  -1.41429061564224411995e-05
  -1.59993664308188954237e-05
  -1.77919917755681376002e-05
  -1.95137077466325684159e-05
  -2.11577197468670874514e-05
  -2.27175398461395280177e-05
  -2.41870123725007601934e-05
  -2.55603382222080455222e-05
  -2.68320977339087107794e-05
  -2.79972720860222068495e-05
  -2.90512630944927963128e-05
  -2.99899113692211864040e-05
  -3.08095127235172712129e-05
  -3.15068327968498726227e-05
  -3.20791198151229405141e-05
  -3.25241154472966087496e-05
  -3.28400637314985033299e-05
  -3.30257179970496492303e-05
  -3.30803457764969211104e-05
  -3.30037317068313171818e-05
  -3.27961783821041614031e-05
  -3.24585051463440046405e-05
  -3.19920448705665057916e-05
  -3.13986386906672619709e-05
  -3.06806287376138839165e-05
  -2.98408488957195458481e-05
  -2.88826136237007531139e-05
  -2.78097048666717449542e-05
  -2.66263571320174764789e-05
  -2.53372407827195326568e-05
  -2.39474435981055915632e-05
  -2.24624507031822773424e-05
  -2.08881229138276117141e-05
  -1.92306736099182555436e-05
  -1.74966442152429183497e-05
  -1.56928783809795360620e-05
  -1.38264949710697084408e-05
  -1.19048599791742405263e-05
  -9.93555744723396120797e-06
  -7.92635954122593049587e-06
  -5.88519587203438980749e-06
  -3.82012220914394695322e-06
  -1.73928868401409065412e-06
  +3.49092378957421147794e-07
  +2.43677886450399190421e-06
  +4.51553140387993413835e-06
  +6.57714588189300818522e-06
  +8.61348581899679578580e-06
  +1.06165144882247110167e-05
  +1.25783266224744914782e-05
  +1.44911796171602166232e-05
  +1.63475240891253941269e-05
  +1.81400336712089272663e-05
  +1.98616339177836780875e-05
  +2.15055302320218921471e-05
  +2.30652346816039435578e-05
  +2.45345915988196652303e-05
  +2.59078018782195540958e-05
  +2.71794458581760679620e-05
  +2.83445047137922696151e-05
  +2.93983802660861930349e-05
  +3.03369131239524871555e-05
  +3.11563990997153978713e-05
  +3.18536038334877428277e-05
  +3.24257755473284471561e-05
  +3.28706559161209732243e-05
  +3.31864889767861012660e-05
  +3.33720280530931651510e-05
  +3.34265406829229076518e-05
  +3.33498115037040803832e-05
  +3.31421431059231776659e-05
  +3.28043548353717105324e-05
  +3.23377795630529373178e-05
  +3.17442584266261200346e-05
  +3.10261335534933892612e-05
  +3.01862388315080832561e-05
  +2.92278887158207833629e-05
  +2.81548651533102610813e-05
  +2.69714026513481629395e-05
  +2.56821715729033819646e-05
  +2.42922596990674203720e-05
  +2.28071521512813509957e-05
  +2.12327097489629902877e-05
  +1.95751458684237595112e-05
  +1.78410019369924780137e-05
  +1.60371216005056479136e-05
  +1.41706237299971029436e-05
  +1.22488743137864006803e-05
  +1.02794573955785228014e-05
  +8.27014514133669557526e-06
  +6.22886716370969098462e-06
  +4.16367923072868961754e-06
  +2.08273147105567706864e-06
  -5.76378813888673813907e-09
  -2.09356443193695184121e-06
  -4.17243109160630140008e-06
  -6.23415965019005335613e-06
  -8.27061363170763679854e-06
  -1.02737563074291761417e-05
  -1.22356824084873642717e-05
  -1.41486493338633447523e-05
  -1.60051076986354441720e-05
  -1.77977311356552696079e-05
  -1.95194451975325670859e-05
  -2.11634552910047201205e-05
  -2.27232734819881838169e-05
  -2.41927441027846258301e-05
  -2.55660680461819827245e-05
  -2.68378256541176808594e-05
  -2.80029980999307522049e-05
  -2.90569872046518142624e-05
  -2.99956335754121085661e-05
  -3.08152330281004802558e-05
  -3.15125511992902300712e-05
  -3.20848363146052347546e-05
  -3.25298300471647700038e-05
  -3.28457764339029110816e-05
  -3.30314287986007961090e-05
  -3.30860546773762822311e-05
  -3.30094387112224560334e-05
  -3.28018834870857900997e-05
  -3.24642083543233908182e-05
  -3.19977461821746415622e-05
  -3.14043381065346312265e-05
  -3.06863262583711196270e-05
  -2.98465445237732380232e-05
  -2.88883073579040835176e-05
  -2.78153967076544215964e-05
  -2.66320470804089397070e-05
  -2.53429288391492058777e-05
  -2.39531297632026813434e-05
  -2.24681349775757903484e-05
  -2.08938052981458193881e-05
  -1.92363541047894191630e-05
  -1.75023228212953059686e-05
  -1.56985550988416291864e-05
  -1.38321698013691398501e-05
  -1.19105329225383075746e-05
  -9.94122850429061177065e-06
  -7.93202871082575949825e-06
  -5.89086315835751416165e-06
  -3.82578761104058380775e-06
  -1.74495220211050652407e-06
  +3.43430744034810193118e-07
  +2.43111911212871574422e-06
  +4.50987353342630854021e-06
  +6.57148989273551075233e-06
  +8.60783171050990539210e-06
  +1.06108622597834206851e-05
  +1.25726762716767258846e-05
  +1.44855311469343736483e-05
  +1.63418774970698609265e-05
  +1.81343889566991034392e-05
  +1.98559910784189231833e-05
  +2.14998892707309852113e-05
  +2.30595955959862475282e-05
  +2.45289543882514961954e-05
  +2.59021665420777261993e-05
  +2.71738123940611604810e-05
  +2.83388731246339831669e-05
  +2.93927505494852695271e-05
  +3.03312852792861405312e-05
  +3.11507731263609030604e-05
  +3.18479797290467870263e-05
  +3.24201533129558886370e-05
  +3.28650355529708706613e-05
  +3.31808704806846625421e-05
  +3.33664114269715172869e-05
  +3.34209259226073601744e-05
  +3.33441986103499184700e-05
  +3.31365320789093770887e-05
  +3.27987456740779585707e-05
  +3.23321722686351154604e-05
  +3.17386529949112289870e-05
  +3.10205299856379745861e-05
  +3.01806371268923302883e-05
  +2.92222888738253043419e-05
  +2.81492671733154649588e-05
  +2.69658065345108595521e-05
  +2.56765773168284331882e-05
  +2.42866673013600641647e-05
  +2.28015616148757365919e-05
  +2.12271210696878598930e-05
  +1.95695590474378135399e-05
  +1.78354169736777347800e-05
  +1.60315384942446034582e-05
  +1.41650424801726395544e-05
  +1.22432949197807196305e-05
  +1.02738798585505176290e-05
  +8.26456945711695162933e-06
  +6.22329333345804963282e-06
  +4.15810725349279190673e-06
  +2.07716134689161775577e-06
  -1.13320601835737641746e-08
</dep>
<dep Vout.Vt time>
  +2.52546334683882411909e+00
  +2.48110071541066590228e+00
  +2.43653630867388892867e+00
  +2.39195333957714417750e+00
  +2.34753959581505355914e+00
  +2.30348651350895172740e+00
  +2.25998816656176781947e+00
  +2.21724018183838733620e+00
  +2.17543858920066446316e+00
  +2.13477861689533465750e+00
  +2.09545344384570775276e+00
  +2.05765292129728960546e+00
  +2.02156227699965551636e+00
  +1.98736081565793853976e+00
  +1.95522062974897536947e+00
  +1.92530533496127898019e+00
  +1.89776884448119664839e+00
  +1.87275419610973470341e+00
  +1.85039244575612205068e+00
  +1.83080164022291902448e+00
  +1.81408588137930082418e+00
  +1.80033449282725865892e+00
  +1.78962129901231015161e+00
  +1.78200402543315261639e+00
  +1.77752382718153612018e+00
  +1.77620495151531554434e+00
  +1.77805453855625872350e+00
  +1.78306256253317663152e+00
  +1.79120191428422059765e+00
  +1.80242862401582448761e+00
  +1.81668222161312109542e+00
  +1.83388623013421270258e+00
  +1.85394878652153294318e+00
  +1.87676338205149773053e+00
  +1.90220971364030666528e+00
  +1.93015463584950430764e+00
  +1.96045320230813091555e+00
  +1.99294978430423208593e+00
  +2.02747925351185953602e+00
  +2.06386821521950336589e+00
  +2.10193627802184623832e+00
  +2.14149734573194727716e+00
  +2.18236091726850478523e+00
  +2.22433338047055428888e+00
  +2.26721928618600854222e+00
  +2.31082258956279096296e+00
  +2.35494784623251751654e+00
  +2.39940135200308191088e+00
  +2.44399221575296099473e+00
  +2.48853335642883521928e+00
  +2.53284241636953089127e+00
  +2.57674258459191340975e+00
  +2.62006332515569173580e+00
  +2.66264100725052710317e+00
  +2.70431943519590811675e+00
  +2.74495027808802127822e+00
  +2.78439340034374316346e+00
  +2.82251709585636456623e+00
  +2.85919822986824856415e+00
  +2.89432229396021467593e+00
  +2.92778338073746935422e+00
  +2.95948408583808175720e+00
  +2.98933534578776249901e+00
  +3.01725622096035150932e+00
  +3.04317363346681313274e+00
  +3.06702207017843120340e+00
  +3.08874326128807963343e+00
  +3.10828584482499881148e+00
  +3.12560502736461787165e+00
  +3.14066225082002947744e+00
  +3.15342487467296495041e+00
  +3.16386588230976206759e+00
  +3.17196361928400794028e+00
  +3.17770157034816280728e+00
  +3.18106818099835164659e+00
  +3.18205672807876682739e+00
  +3.18066524271637574017e+00
  +3.17689648752378994701e+00
  +3.17075798864248570297e+00
  +3.16226212182267962802e+00
  +3.15142625037423185219e+00
  +3.13827291149839959772e+00
  +3.12283004624589333176e+00
  +3.10513126716444487485e+00
  +3.08521615661975534550e+00
  +3.06313058781567937316e+00
  +3.03892705972067478370e+00
  +3.01266503644159522324e+00
  +2.98441128108582010015e+00
  +2.95424017382809811494e+00
  +2.92223400375539377194e+00
  +2.88848322410608293609e+00
  +2.85308666074935146639e+00
  +2.81615166416443019060e+00
  +2.77779419577233666061e+00
  +2.73813884023631759490e+00
  +2.69731873627138973859e+00
  +2.65547541957300303750e+00
  +2.61275857267536837369e+00
  +2.56932567786258392317e+00
  +2.52534157065989273150e+00
  +2.48097789290741976842e+00
  +2.43641244594100436771e+00
  +2.39182844595061538939e+00
  +2.34741368513228287895e+00
  +2.30335960377008630573e+00
  +2.25986027985592663470e+00
  +2.21711134425370826051e+00
  +2.17530883071866698586e+00
  +2.13464797126999927812e+00
  +2.09532194846772412689e+00
  +2.05752061704411204346e+00
  +2.02142920807180459519e+00
  +1.98722702940238971081e+00
  +1.95508617647019877772e+00
  +1.92517026772073696073e+00
  +1.89763321888615021926e+00
  +1.87261807009206804331e+00
  +1.85025587934220392405e+00
  +1.83066469529533670801e+00
  +1.81394862143141288868e+00
  +1.80019698271158112846e+00
  +1.78948360468368794507e+00
  +1.78186621368776187957e+00
  +1.77738596539273352448e+00
  +1.77606710736738504508e+00
  +1.77791677977714135395e+00
  +1.78292495662714567395e+00
  +1.79106452826567874581e+00
  +1.80229152414515758629e+00
  +1.81654547313574710188e+00
  +1.83374989702377089174e+00
  +1.85381293122829826636e+00
  +1.87662806525695424753e+00
  +1.90207499401883950441e+00
  +1.93002056983821579372e+00
  +1.96031984388558244703e+00
  +1.99281718477909230991e+00
  +2.02734746132217580339e+00
  +2.06373727574348242442e+00
  +2.10180623340077499250e+00
  +2.14136823470603854247e+00
  +2.18223277502625023772e+00
  +2.22420623851224164014e+00
  +2.26709317220180572860e+00
  +2.31069752732599287270e+00
  +2.35482385550830386478e+00
  +2.39927844847314597487e+00
  +2.44387041095631696308e+00
  +2.48841265771898223491e+00
  +2.53272282688817407248e+00
  +2.57662410325931157118e+00
  +2.61994594667768332386e+00
  +2.66252472214216551194e+00
  +2.70420422982160824077e+00
  +2.74483613471807696982e+00
  +2.78428029722692294001e+00
  +2.82240500730838750343e+00
  +2.85908712637563855452e+00
  +2.89421214229926482275e+00
  +2.92767414410772586209e+00
  +2.95937572400987702892e+00
  +2.98922781526312020262e+00
  +3.01714947514676978813e+00
  +3.04306762286307863619e+00
  +3.06691674257178714669e+00
  +3.08863856196198272031e+00
  +3.10818171677660393115e+00
  +3.12550141153115079717e+00
  +3.14055908631311098134e+00
  +3.15332209902002080781e+00
  +3.16376343170149443296e+00
  +3.17186142882696309186e+00
  +3.17759957432144890532e+00
  +3.18096631311341226933e+00
  +3.18195492174125016405e+00
  +3.18056343128902030415e+00
  +3.17679460458929563416e+00
  +3.17065596826537543507e+00
  +3.16215989880905512521e+00
  +3.15132376052843898862e+00
  +3.13817009187558992878e+00
  +3.12272683539947859543e+00
  +3.10502760538748256991e+00
  +3.08511198617929505161e+00
  +3.06302585317917230867e+00
  +3.03882170777356908076e+00
  +3.01255901669523495912e+00
  +2.98430454587482252293e+00
  +2.95413267849648430996e+00
  +2.92212570683074401856e+00
  +2.88837408746096224732e+00
  +2.85297664974947196015e+00
  +2.81604074780292945590e+00
  +2.77768234678961523088e+00
  +2.73802603522507181921e+00
  +2.69720495576635777013e+00
  +2.65536064812507133226e+00
  +2.61264279890981487853e+00
  +2.56920889452117551244e+00
  +2.52522377462673563997e+00
</dep>
<dep _net1.Vt time>
  +5.00000000000000000000e+00
  +5.00000000000000000000e+00
  +5.00000000000000000000e+00
  +5.00000000000000000000e+00
  +5.00000000000000000000e+00
  +5.00000000000000000000e+00
  +5.00000000000000000000e+00
  +5.00000000000000000000e+00
  +5.00000000000000000000e+00
  +5.00000000000000000000e+00
  +5.00000000000000000000e+00
  +5.00000000000000000000e+00
  +5.00000000000000000000e+00
  +5.00000000000000000000e+00
  +5.00000000000000000000e+00
  +5.00000000000000000000e+00
  +5.00000000000000000000e+00
  +5.00000000000000000000e+00
  +5.00000000000000000000e+00
  +5.00000000000000000000e+00
  +5.00000000000000000000e+00
  +5.00000000000000000000e+00
  +5.00000000000000000000e+00
  +5.00000000000000000000e+00
  +5.00000000000000000000e+00
  +5.00000000000000000000e+00
  +5.00000000000000000000e+00
  +5.00000000000000000000e+00
  +5.00000000000000000000e+00
  +5.00000000000000000000e+00
  +5.00000000000000000000e+00
  +5.00000000000000000000e+00
  +5.00000000000000000000e+00
  +5.00000000000000000000e+00
  +5.00000000000000000000e+00
  +5.00000000000000000000e+00
  +5.00000000000000000000e+00
  +5.00000000000000000000e+00
  +5.00000000000000000000e+00
  +5.00000000000000000000e+00
  +5.00000000000000000000e+00
  +5.00000000000000000000e+00
  +5.00000000000000000000e+00
  +5.00000000000000000000e+00
  +5.00000000000000000000e+00
  +5.00000000000000000000e+00
  +5.00000000000000000000e+00
  +5.00000000000000000000e+00
  +5.00000000000000000000e+00
  +5.00000000000000000000e+00
  +5.00000000000000000000e+00
  +5.00000000000000000000e+00
  +5.00000000000000000000e+00
  +5.00000000000000000000e+00
  +5.00000000000000000000e+00
  +5.00000000000000000000e+00
  +5.00000000000000000000e+00
  +5.00000000000000000000e+00
  +5.00000000000000000000e+00
  +5.00000000000000000000e+00
  +5.00000000000000000000e+00
  +5.00000000000000000000e+00
  +5.00000000000000000000e+00
  +5.00000000000000000000e+00
  +5.00000000000000000000e+00
  +5.00000000000000000000e+00
  +5.00000000000000000000e+00
  +5.00000000000000000000e+00
  +5.00000000000000000000e+00
  +5.00000000000000000000e+00
  +5.00000000000000000000e+00
  +5.00000000000000000000e+00
  +5.00000000000000000000e+00
  +5.00000000000000000000e+00
  +5.00000000000000000000e+00
  +5.00000000000000000000e+00
  +5.00000000000000000000e+00
  +5.00000000000000000000e+00
  +5.00000000000000000000e+00
  +5.00000000000000000000e+00
  +5.00000000000000000000e+00
  +5.00000000000000000000e+00
  +5.00000000000000000000e+00
  +5.00000000000000000000e+00
  +5.00000000000000000000e+00
  +5.00000000000000000000e+00
  +5.00000000000000000000e+00
  +5.00000000000000000000e+00
  +5.00000000000000000000e+00
  +5.00000000000000000000e+00
  +5.00000000000000000000e+00
  +5.00000000000000000000e+00
  +5.00000000000000000000e+00
  +5.00000000000000000000e+00
  +5.00000000000000000000e+00
  +5.00000000000000000000e+00
  +5.00000000000000000000e+00
  +5.00000000000000000000e+00
  +5.00000000000000000000e+00
  +5.00000000000000000000e+00
  +5.00000000000000000000e+00
  +5.00000000000000000000e+00
  +5.00000000000000000000e+00
  +5.00000000000000000000e+00
  +5.00000000000000000000e+00
  +5.00000000000000000000e+00
  +5.00000000000000000000e+00
  +5.00000000000000000000e+00
  +5.00000000000000000000e+00
  +5.00000000000000000000e+00
  +5.00000000000000000000e+00
  +5.00000000000000000000e+00
  +5.00000000000000000000e+00
  +5.00000000000000000000e+00
  +5.00000000000000000000e+00
  +5.00000000000000000000e+00
  +5.00000000000000000000e+00
  +5.00000000000000000000e+00
  +5.00000000000000000000e+00
  +5.00000000000000000000e+00
  +5.00000000000000000000e+00
  +5.00000000000000000000e+00
  +5.00000000000000000000e+00
  +5.00000000000000000000e+00
  +5.00000000000000000000e+00
  +5.00000000000000000000e+00
  +5.00000000000000000000e+00
  +5.00000000000000000000e+00
  +5.00000000000000000000e+00
  +5.00000000000000000000e+00
  +5.00000000000000000000e+00
  +5.00000000000000000000e+00
  +5.00000000000000000000e+00
  +5.00000000000000000000e+00
  +5.00000000000000000000e+00
  +5.00000000000000000000e+00
  +5.00000000000000000000e+00
  +5.00000000000000000000e+00
  +5.00000000000000000000e+00
  +5.00000000000000000000e+00
  +5.00000000000000000000e+00
  +5.00000000000000000000e+00
  +5.00000000000000000000e+00
  +5.00000000000000000000e+00
  +5.00000000000000000000e+00
  +5.00000000000000000000e+00
  +5.00000000000000000000e+00
  +5.00000000000000000000e+00
  +5.00000000000000000000e+00
  +5.00000000000000000000e+00
  +5.00000000000000000000e+00
  +5.00000000000000000000e+00
  +5.00000000000000000000e+00
  +5.00000000000000000000e+00
  +5.00000000000000000000e+00
  +5.00000000000000000000e+00
  +5.00000000000000000000e+00
  +5.00000000000000000000e+00
  +5.00000000000000000000e+00
  +5.00000000000000000000e+00
  +5.00000000000000000000e+00
  +5.00000000000000000000e+00
  +5.00000000000000000000e+00
  +5.00000000000000000000e+00
  +5.00000000000000000000e+00
  +5.00000000000000000000e+00
  +5.00000000000000000000e+00
  +5.00000000000000000000e+00
  +5.00000000000000000000e+00
  +5.00000000000000000000e+00
  +5.00000000000000000000e+00
  +5.00000000000000000000e+00
  +5.00000000000000000000e+00
  +5.00000000000000000000e+00
  +5.00000000000000000000e+00
  +5.00000000000000000000e+00
  +5.00000000000000000000e+00
  +5.00000000000000000000e+00
  +5.00000000000000000000e+00
  +5.00000000000000000000e+00
  +5.00000000000000000000e+00
  +5.00000000000000000000e+00
  +5.00000000000000000000e+00
  +5.00000000000000000000e+00
  +5.00000000000000000000e+00
  +5.00000000000000000000e+00
  +5.00000000000000000000e+00
  +5.00000000000000000000e+00
  +5.00000000000000000000e+00
  +5.00000000000000000000e+00
  +5.00000000000000000000e+00
  +5.00000000000000000000e+00
  +5.00000000000000000000e+00
  +5.00000000000000000000e+00
  +5.00000000000000000000e+00
  +5.00000000000000000000e+00
  +5.00000000000000000000e+00
  +5.00000000000000000000e+00
  +5.00000000000000000000e+00
  +5.00000000000000000000e+00
  +5.00000000000000000000e+00
</dep>
<dep _net2.Vt time>
  +1.50349650349650354464e+00
  +1.50977451118010619346e+00
  +1.51602565461849958517e+00
  +1.52222526395490875828e+00
  +1.52834887289724052906e+00
  +1.53437231505238358409e+00
  +1.54027181933954948612e+00
  +1.54602410380386157129e+00
  +1.55160646749959330037e+00
  +1.55699688008043346521e+00
  +1.56217406874319508781e+00
  +1.56711760218185580662e+00
  +1.57180797122058235615e+00
  +1.57622666580753922894e+00
  +1.58035624806560770494e+00
  +1.58418042111171430975e+00
  +1.58768409337319194030e+00
  +1.59085343814731272616e+00
  +1.59367594816897550913e+00
  +1.59614048497116223224e+00
  +1.59823732284338104748e+00
  +1.59995818721459914791e+00
  +1.60129628730919981727e+00
  +1.60224634294706747006e+00
  +1.60280460538204594378e+00
  +1.60296887209652894057e+00
  +1.60273849549379132640e+00
  +1.60211438545375495224e+00
  +1.60109900574211194701e+00
  +1.59969636428696371233e+00
  +1.59791199736136180221e+00
  +1.59575294773416609395e+00
  +1.59322773687545615751e+00
  +1.59034633132618141715e+00
  +1.58712010336477460370e+00
  +1.58356178612596698585e+00
  +1.57968542334892059209e+00
  +1.57550631395301099502e+00
  +1.57104095165997570405e+00
  +1.56630695990073309787e+00
  +1.56132302226375241361e+00
  +1.55610880875946300250e+00
  +1.55068489819171118071e+00
  +1.54507269694262627802e+00
  +1.53929435449140572523e+00
  +1.53337267600044047100e+00
  +1.52733103231376010633e+00
  +1.52119326772298646411e+00
  +1.51498360586480895762e+00
  +1.50872655412135836528e+00
  +1.50244680690076370944e+00
  +1.49616914817960600104e+00
  +1.48991835369188785343e+00
  +1.48371909315052663558e+00
  +1.47759583288727114336e+00
  +1.47157273929526621892e+00
  +1.46567358345533937936e+00
  +1.45992164732240947700e+00
  +1.45433963184223724596e+00
  +1.44894956736117341833e+00
  +1.44377272668244316378e+00
  +1.43882954111210992210e+00
  +1.43413951982604270796e+00
  +1.42972117287611544256e+00
  +1.42559193813948792418e+00
  +1.42176811249926982050e+00
  +1.41826478752816864670e+00
  +1.41509578992894802241e+00
  +1.41227362696674907383e+00
  +1.40980943710862693941e+00
  +1.40771294606511432335e+00
  +1.40599242840728000381e+00
  +1.40465467491077999895e+00
  +1.40370496575576897413e+00
  +1.40314704968843995125e+00
  +1.40298312922643875211e+00
  +1.40321385196652803629e+00
  +1.40383830802882370037e+00
  +1.40485403364767358347e+00
  +1.40625702089501336545e+00
  +1.40804173349782990599e+00
  +1.41020112868730107536e+00
  +1.41272668499338527326e+00
  +1.41560843587517304343e+00
  +1.41883500905426762628e+00
  +1.42239367139597749912e+00
  +1.42627037916117815897e+00
  +1.43044983343053222491e+00
  +1.43491554048234082330e+00
  +1.43964987688572421121e+00
  +1.44463415905225112112e+00
  +1.44984871697152994940e+00
  +1.45527297183975123929e+00
  +1.46088551727482607312e+00
  +1.46666420379759232517e+00
  +1.47258622624569768256e+00
  +1.47862821377515230026e+00
  +1.48476632209437120480e+00
  +1.49097632756670428478e+00
  +1.49723372281005806528e+00
  +1.50351381341634104949e+00
  +1.50979181540900930791e+00
  +1.51604295305410108341e+00
  +1.52224255663873297983e+00
  +1.52836615983119705753e+00
  +1.53438959623838644397e+00
  +1.54028909477950914919e+00
  +1.54604137349968806525e+00
  +1.55162373145319665291e+00
  +1.55701413829372303788e+00
  +1.56219132121808046421e+00
  +1.56713484892024434991e+00
  +1.57182521222438165154e+00
  +1.57624390107865530730e+00
  +1.58037347760594615309e+00
  +1.58419764492318182469e+00
  +1.58770131145769166636e+00
  +1.59087065050674980604e+00
  +1.59369315480525397533e+00
  +1.59615768588618500701e+00
  +1.59825451803905016490e+00
  +1.59997537669281708617e+00
  +1.60131347107186683409e+00
  +1.60226352099608337909e+00
  +1.60282177771931033661e+00
  +1.60298603872394229697e+00
  +1.60275565641325146160e+00
  +1.60213154066716034762e+00
  +1.60111615525135908555e+00
  +1.59971350809395018722e+00
  +1.59792913546798343027e+00
  +1.59577008014231935817e+00
  +1.59324486358703643063e+00
  +1.59036345234308096330e+00
  +1.58713721868888724131e+00
  +1.58357889575918520109e+00
  +1.57970252729313753726e+00
  +1.57552341221011826811e+00
  +1.57105804423186445895e+00
  +1.56632404678929293418e+00
  +1.56134010347087226478e+00
  +1.55612588428703224608e+00
  +1.55070196804161941628e+00
  +1.54508976111676044063e+00
  +1.53931141299165297198e+00
  +1.53338972882868818104e+00
  +1.52734807947189388244e+00
  +1.52121030921289257520e+00
  +1.51500064168837145218e+00
  +1.50874358428046084768e+00
  +1.50246383139728956202e+00
  +1.49618616701543860614e+00
  +1.48993536686890881704e+00
  +1.48373610067061689755e+00
  +1.47761283475231142148e+00
  +1.47158973550713634282e+00
  +1.46569057401592051093e+00
  +1.45993863223357900338e+00
  +1.45435661110587521883e+00
  +1.44896654097915789094e+00
  +1.44378969465665152327e+00
  +1.43884650344441800129e+00
  +1.43415647651832811604e+00
  +1.42973812393025312417e+00
  +1.42560888355735193578e+00
  +1.42178505228273355243e+00
  +1.41828172167910548929e+00
  +1.41511271844923136598e+00
  +1.41229054985825142055e+00
  +1.40982635437322034733e+00
  +1.40772985770466929623e+00
  +1.40600933442366549109e+00
  +1.40467157530586628233e+00
  +1.40372186053142500306e+00
  +1.40316393884653400903e+00
  +1.40300001276883845591e+00
  +1.40323072989510078123e+00
  +1.40385518034543643751e+00
  +1.40487090035419215361e+00
  +1.40627388199330294327e+00
  +1.40805858898975566618e+00
  +1.41021797857472730442e+00
  +1.41274352927817536951e+00
  +1.41562527455918973907e+00
  +1.41885184213937365350e+00
  +1.42241049888403536805e+00
  +1.42628720105404904750e+00
  +1.43046664973007597865e+00
  +1.43493235119041706582e+00
  +1.43966668200419301016e+00
  +1.44465095858296943554e+00
  +1.44986551091635629263e+00
  +1.45528976020054212626e+00
  +1.46090230005343735264e+00
  +1.46668098099588140037e+00
  +1.47260299786552151247e+00
  +1.47864497981836517937e+00
  +1.48478308256282676147e+00
  +1.49099308246225525920e+00
  +1.49725047213455786377e+00
  +1.50353055717164307836e+00
</dep>
<dep _net0.Vt time>
  +5.00000000000000000000e+00
  +5.00000000000000000000e+00
  +5.00000000000000000000e+00
  +5.00000000000000000000e+00
  +5.00000000000000000000e+00
  +5.00000000000000000000e+00
  +5.00000000000000000000e+00
  +5.00000000000000000000e+00
  +5.00000000000000000000e+00
  +5.00000000000000000000e+00
  +5.00000000000000000000e+00
  +5.00000000000000000000e+00
  +5.00000000000000000000e+00
  +5.00000000000000000000e+00
  +5.00000000000000000000e+00
  +5.00000000000000000000e+00
  +5.00000000000000000000e+00
  +5.00000000000000000000e+00
  +5.00000000000000000000e+00
  +5.00000000000000000000e+00
  +5.00000000000000000000e+00
  +5.00000000000000000000e+00
  +5.00000000000000000000e+00
  +5.00000000000000000000e+00
  +5.00000000000000000000e+00
  +5.00000000000000000000e+00
  +5.00000000000000000000e+00
  +5.00000000000000000000e+00
  +5.00000000000000000000e+00
  +5.00000000000000000000e+00
  +5.00000000000000000000e+00
  +5.00000000000000000000e+00
  +5.00000000000000000000e+00
  +5.00000000000000000000e+00
  +5.00000000000000000000e+00
  +5.00000000000000000000e+00
  +5.00000000000000000000e+00
  +5.00000000000000000000e+00
  +5.00000000000000000000e+00
  +5.00000000000000000000e+00
  +5.00000000000000000000e+00
  +5.00000000000000000000e+00
  +5.00000000000000000000e+00
  +5.00000000000000000000e+00
  +5.00000000000000000000e+00
  +5.00000000000000000000e+00
  +5.00000000000000000000e+00
  +5.00000000000000000000e+00
  +5.00000000000000000000e+00
  +5.00000000000000000000e+00
  +5.00000000000000000000e+00
  +5.00000000000000000000e+00
  +5.00000000000000000000e+00
  +5.00000000000000000000e+00
  +5.00000000000000000000e+00
  +5.00000000000000000000e+00
  +5.00000000000000000000e+00
  +5.00000000000000000000e+00
  +5.00000000000000000000e+00
  +5.00000000000000000000e+00
  +5.00000000000000000000e+00
  +5.00000000000000000000e+00
  +5.00000000000000000000e+00
  +5.00000000000000000000e+00
  +5.00000000000000000000e+00
  +5.00000000000000000000e+00
  +5.00000000000000000000e+00
  +5.00000000000000000000e+00
  +5.00000000000000000000e+00
  +5.00000000000000000000e+00
  +5.00000000000000000000e+00
  +5.00000000000000000000e+00
  +5.00000000000000000000e+00
  +5.00000000000000000000e+00
  +5.00000000000000000000e+00
  +5.00000000000000000000e+00
  +5.00000000000000000000e+00
  +5.00000000000000000000e+00
  +5.00000000000000000000e+00
  +5.00000000000000000000e+00
  +5.00000000000000000000e+00
  +5.00000000000000000000e+00
  +5.00000000000000000000e+00
  +5.00000000000000000000e+00
  +5.00000000000000000000e+00
  +5.00000000000000000000e+00
  +5.00000000000000000000e+00
  +5.00000000000000000000e+00
  +5.00000000000000000000e+00
  +5.00000000000000000000e+00
  +5.00000000000000000000e+00
  +5.00000000000000000000e+00
  +5.00000000000000000000e+00
  +5.00000000000000000000e+00
  +5.00000000000000000000e+00
  +5.00000000000000000000e+00
  +5.00000000000000000000e+00
  +5.00000000000000000000e+00
  +5.00000000000000000000e+00
  +5.00000000000000000000e+00
  +5.00000000000000000000e+00
  +5.00000000000000000000e+00
  +5.00000000000000000000e+00
  +5.00000000000000000000e+00
  +5.00000000000000000000e+00
  +5.00000000000000000000e+00
  +5.00000000000000000000e+00
  +5.00000000000000000000e+00
  +5.00000000000000000000e+00
  +5.00000000000000000000e+00
  +5.00000000000000000000e+00
  +5.00000000000000000000e+00
  +5.00000000000000000000e+00
  +5.00000000000000000000e+00
  +5.00000000000000000000e+00
  +5.00000000000000000000e+00
  +5.00000000000000000000e+00
  +5.00000000000000000000e+00
  +5.00000000000000000000e+00
  +5.00000000000000000000e+00
  +5.00000000000000000000e+00
  +5.00000000000000000000e+00
  +5.00000000000000000000e+00
  +5.00000000000000000000e+00
  +5.00000000000000000000e+00
  +5.00000000000000000000e+00
  +5.00000000000000000000e+00
  +5.00000000000000000000e+00
  +5.00000000000000000000e+00
  +5.00000000000000000000e+00
  +5.00000000000000000000e+00
  +5.00000000000000000000e+00
  +5.00000000000000000000e+00
  +5.00000000000000000000e+00
  +5.00000000000000000000e+00
  +5.00000000000000000000e+00
  +5.00000000000000000000e+00
  +5.00000000000000000000e+00
  +5.00000000000000000000e+00
  +5.00000000000000000000e+00
  +5.00000000000000000000e+00
  +5.00000000000000000000e+00
  +5.00000000000000000000e+00
  +5.00000000000000000000e+00
  +5.00000000000000000000e+00
  +5.00000000000000000000e+00
  +5.00000000000000000000e+00
  +5.00000000000000000000e+00
  +5.00000000000000000000e+00
  +5.00000000000000000000e+00
  +5.00000000000000000000e+00
  +5.00000000000000000000e+00
  +5.00000000000000000000e+00
  +5.00000000000000000000e+00
  +5.00000000000000000000e+00
  +5.00000000000000000000e+00
  +5.00000000000000000000e+00
  +5.00000000000000000000e+00
  +5.00000000000000000000e+00
  +5.00000000000000000000e+00
  +5.00000000000000000000e+00
  +5.00000000000000000000e+00
  +5.00000000000000000000e+00
  +5.00000000000000000000e+00
  +5.00000000000000000000e+00
  +5.00000000000000000000e+00
  +5.00000000000000000000e+00
  +5.00000000000000000000e+00
  +5.00000000000000000000e+00
  +5.00000000000000000000e+00
  +5.00000000000000000000e+00
  +5.00000000000000000000e+00
  +5.00000000000000000000e+00
  +5.00000000000000000000e+00
  +5.00000000000000000000e+00
  +5.00000000000000000000e+00
  +5.00000000000000000000e+00
  +5.00000000000000000000e+00
  +5.00000000000000000000e+00
  +5.00000000000000000000e+00
  +5.00000000000000000000e+00
  +5.00000000000000000000e+00
  +5.00000000000000000000e+00
  +5.00000000000000000000e+00
  +5.00000000000000000000e+00
  +5.00000000000000000000e+00
  +5.00000000000000000000e+00
  +5.00000000000000000000e+00
  +5.00000000000000000000e+00
  +5.00000000000000000000e+00
  +5.00000000000000000000e+00
  +5.00000000000000000000e+00
  +5.00000000000000000000e+00
  +5.00000000000000000000e+00
  +5.00000000000000000000e+00
  +5.00000000000000000000e+00
  +5.00000000000000000000e+00
  +5.00000000000000000000e+00
  +5.00000000000000000000e+00
  +5.00000000000000000000e+00
  +5.00000000000000000000e+00
</dep>
<dep Vin.Vt time>
  +0.00000000000000000000e+00
  +6.27905195293144806346e-03
  +1.25333233564303737906e-02
  +1.87381314585724038924e-02
  +2.48689887164854628310e-02
  +3.09016994374946320223e-02
  +3.68124552684679917647e-02
  +4.25779291565072659509e-02
  +4.81753674101715323452e-02
  +5.35826794978996670538e-02
  +5.87785252292473137103e-02
  +6.37423989748689689971e-02
  +6.84547105928687421583e-02
  +7.28968627421411607958e-02
  +7.70513242775789364281e-02
  +8.09016994374947562285e-02
  +8.44327925502015158576e-02
  +8.76306680043863611695e-02
  +9.04827052466019576826e-02
  +9.29776485888251374989e-02
  +9.51056516295153558938e-02
  +9.68583161128631076053e-02
  +9.82287250728688665635e-02
  +9.92114701314477931415e-02
  +9.98026728428269976900e-02
  +1.00000000000000185962e-01
  +9.98026728428270670790e-02
  +9.92114701314476127303e-02
  +9.82287250728688526857e-02
  +9.68583161128631492387e-02
  +9.51056516295155501828e-02
  +9.29776485888253179102e-02
  +9.04827052466019299271e-02
  +8.76306680043863195362e-02
  +8.44327925502015574910e-02
  +8.09016994374948394952e-02
  +7.70513242775789086725e-02
  +7.28968627421410358957e-02
  +6.84547105928688115473e-02
  +6.37423989748688579748e-02
  +5.87785252292474455493e-02
  +5.35826794978997433816e-02
  +4.81753674101713796896e-02
  +4.25779291565072312564e-02
  +3.68124552684677766590e-02
  +3.09016994374946216140e-02
  +2.48689887164853899726e-02
  +1.87381314585724247090e-02
  +1.25333233564304293017e-02
  +6.27905195293113928268e-03
  -1.74216677800080425864e-17
  -6.27905195293162760733e-03
  -1.25333233564303841989e-02
  -1.87381314585723761368e-02
  -2.48689887164853622170e-02
  -3.09016994374946667168e-02
  -3.68124552684677766590e-02
  -4.25779291565071757453e-02
  -4.81753674101715323452e-02
  -5.35826794978996046037e-02
  -5.87785252292472443214e-02
  -6.37423989748688718526e-02
  -6.84547105928687699139e-02
  -7.28968627421411191625e-02
  -7.70513242775788947947e-02
  -8.09016994374946174506e-02
  -8.44327925502014048353e-02
  -8.76306680043863056584e-02
  -9.04827052466018605381e-02
  -9.29776485888253456658e-02
  -9.51056516295154807938e-02
  -9.68583161128631076053e-02
  -9.82287250728686306411e-02
  -9.92114701314477098748e-02
  -9.98026728428271781013e-02
  -9.99999999999999084066e-02
  -9.98026728428272336124e-02
  -9.92114701314478625305e-02
  -9.82287250728688943191e-02
  -9.68583161128629133163e-02
  -9.51056516295152726270e-02
  -9.29776485888250681100e-02
  -9.04827052466019160493e-02
  -8.76306680043864028029e-02
  -8.44327925502016407577e-02
  -8.09016994374946313284e-02
  -7.70513242775789641836e-02
  -7.28968627421411469181e-02
  -6.84547105928690474697e-02
  -6.37423989748689551194e-02
  -5.87785252292474594271e-02
  -5.35826794978996670538e-02
  -4.81753674101713866285e-02
  -4.25779291565073839121e-02
  -3.68124552684678876813e-02
  -3.09016994374945938584e-02
  -2.48689887164855599755e-02
  -1.87381314585723206256e-02
  -1.25333233564303789948e-02
  -6.27905195293139428703e-03
  +1.81668570094738953286e-17
  +6.27905195293111412919e-03
  +1.25333233564305871616e-02
  +1.87381314585724489952e-02
  +2.48689887164855079338e-02
  +3.09016994374947916169e-02
  +3.68124552684679293146e-02
  +4.25779291565071202341e-02
  +4.81753674101714074451e-02
  +5.35826794978995490926e-02
  +5.87785252292470847268e-02
  +6.37423989748688302193e-02
  +6.84547105928687699139e-02
  +7.28968627421410914069e-02
  +7.70513242775788947947e-02
  +8.09016994374946452062e-02
  +8.44327925502016130022e-02
  +8.76306680043864166807e-02
  +9.04827052466019438048e-02
  +9.29776485888251930101e-02
  +9.51056516295153836493e-02
  +9.68583161128630937275e-02
  +9.82287250728688665635e-02
  +9.92114701314476959970e-02
  +9.98026728428270670790e-02
  +1.00000000000000019429e-01
  +9.98026728428271642235e-02
  +9.92114701314479319194e-02
  +9.82287250728689081969e-02
  +9.68583161128630520942e-02
  +9.51056516295153975271e-02
  +9.29776485888252346435e-02
  +9.04827052466020964605e-02
  +8.76306680043863195362e-02
  +8.44327925502015019799e-02
  +8.09016994374946174506e-02
  +7.70513242775790613281e-02
  +7.28968627421412301848e-02
  +6.84547105928687282805e-02
  +6.37423989748688163415e-02
  +5.87785252292473275881e-02
  +5.35826794978998890984e-02
  +4.81753674101716711231e-02
  +4.25779291565071063563e-02
  +3.68124552684677905368e-02
  +3.09016994374948818225e-02
  +2.48689887164854767088e-02
  +1.87381314585723934840e-02
  +1.25333233564303026669e-02
  +6.27905195293146888014e-03
  -1.13350809269407526523e-17
  -6.27905195293139341967e-03
  -1.25333233564304796087e-02
  -1.87381314585724732813e-02
  -2.48689887164855738533e-02
  -3.09016994374946597779e-02
  -3.68124552684678044145e-02
  -4.25779291565073006454e-02
  -4.81753674101715601008e-02
  -5.35826794978996531760e-02
  -5.87785252292473484048e-02
  -6.37423989748688579748e-02
  -6.84547105928686727694e-02
  -7.28968627421410636513e-02
  -7.70513242775789919392e-02
  -8.09016994374946729618e-02
  -8.44327925502014603465e-02
  -8.76306680043864166807e-02
  -9.04827052466016940047e-02
  -9.29776485888252346435e-02
  -9.51056516295152309937e-02
  -9.68583161128631492387e-02
  -9.82287250728689359525e-02
  -9.92114701314475572191e-02
  -9.98026728428272891236e-02
  -1.00000000000000005551e-01
  -9.98026728428270948346e-02
  -9.92114701314480429417e-02
  -9.82287250728688249302e-02
  -9.68583161128630243386e-02
  -9.51056516295155085494e-02
  -9.29776485888251791323e-02
  -9.04827052466020270716e-02
  -8.76306680043864028029e-02
  -8.44327925502016546355e-02
  -8.09016994374948394952e-02
  -7.70513242775792001060e-02
  -7.28968627421412024292e-02
  -6.84547105928687560361e-02
  -6.37423989748687191970e-02
  -5.87785252292474802438e-02
  -5.35826794978993894980e-02
  -4.81753674101713727507e-02
  -4.25779291565073075843e-02
  -3.68124552684680889092e-02
  -3.09016994374948193725e-02
  -2.48689887164855391588e-02
  -1.87381314585726953259e-02
  -1.25333233564306045088e-02
  -6.27905195293158076980e-03
  -2.50242955433308831355e-17
</dep>
<indep Pr1.I 1>
  +2.47453665316117428843e-03
</indep>
<indep V1.I 1>
  -2.82418700281152415532e-03
</indep>
<indep V3.I 1>
  +0.00000000000000000000e+00
</indep>
<indep Vout.V 1>
  +2.52546334683882589545e+00
</indep>
<indep _net1.V 1>
  +5.00000000000000000000e+00
</indep>
<indep _net2.V 1>
  +1.50349650349650332259e+00
</indep>
<indep _net0.V 1>
  +5.00000000000000000000e+00
</indep>
<indep Vin.V 1>
  +0.00000000000000000000e+00
</indep>
